digraph Tree {
node [shape=box, fontname="helvetica"] ;
edge [fontname="helvetica"] ;
0 [label="x[0] <= 0.5\ngini = 0.425\nsamples = 700\nvalue = [214, 486]"] ;
1 [label="x[13] <= 0.5\ngini = 0.219\nsamples = 272\nvalue = [34, 238]"] ;
0 -> 1 [labeldistance=2.5, labelangle=45, headlabel="True"] ;
2 [label="x[12] <= 44.5\ngini = 0.466\nsamples = 27\nvalue = [10, 17]"] ;
1 -> 2 ;
3 [label="x[1] <= 16.5\ngini = 0.5\nsamples = 20\nvalue = [10, 10]"] ;
2 -> 3 ;
4 [label="x[6] <= 2.5\ngini = 0.278\nsamples = 6\nvalue = [1, 5]"] ;
3 -> 4 ;
5 [label="gini = 0.0\nsamples = 5\nvalue = [0, 5]"] ;
4 -> 5 ;
6 [label="gini = 0.0\nsamples = 1\nvalue = [1, 0]"] ;
4 -> 6 ;
7 [label="x[9] <= 1.5\ngini = 0.459\nsamples = 14\nvalue = [9, 5]"] ;
3 -> 7 ;
8 [label="gini = 0.0\nsamples = 2\nvalue = [0, 2]"] ;
7 -> 8 ;
9 [label="x[7] <= 1.5\ngini = 0.375\nsamples = 12\nvalue = [9, 3]"] ;
7 -> 9 ;
10 [label="gini = 0.0\nsamples = 2\nvalue = [0, 2]"] ;
9 -> 10 ;
11 [label="x[10] <= 1.5\ngini = 0.18\nsamples = 10\nvalue = [9, 1]"] ;
9 -> 11 ;
12 [label="gini = 0.0\nsamples = 1\nvalue = [0, 1]"] ;
11 -> 12 ;
13 [label="gini = 0.0\nsamples = 9\nvalue = [9, 0]"] ;
11 -> 13 ;
14 [label="gini = 0.0\nsamples = 7\nvalue = [0, 7]"] ;
2 -> 14 ;
15 [label="x[12] <= 28.5\ngini = 0.177\nsamples = 245\nvalue = [24, 221]"] ;
1 -> 15 ;
16 [label="x[1] <= 34.5\ngini = 0.316\nsamples = 66\nvalue = [13, 53]"] ;
15 -> 16 ;
17 [label="x[9] <= 1.5\ngini = 0.226\nsamples = 54\nvalue = [7, 47]"] ;
16 -> 17 ;
18 [label="x[1] <= 11.0\ngini = 0.444\nsamples = 3\nvalue = [2, 1]"] ;
17 -> 18 ;
19 [label="gini = 0.0\nsamples = 2\nvalue = [2, 0]"] ;
18 -> 19 ;
20 [label="gini = 0.0\nsamples = 1\nvalue = [0, 1]"] ;
18 -> 20 ;
21 [label="x[4] <= 1349.5\ngini = 0.177\nsamples = 51\nvalue = [5, 46]"] ;
17 -> 21 ;
22 [label="gini = 0.0\nsamples = 19\nvalue = [0, 19]"] ;
21 -> 22 ;
23 [label="x[4] <= 1523.0\ngini = 0.264\nsamples = 32\nvalue = [5, 27]"] ;
21 -> 23 ;
24 [label="x[12] <= 27.0\ngini = 0.444\nsamples = 3\nvalue = [2, 1]"] ;
23 -> 24 ;
25 [label="gini = 0.0\nsamples = 2\nvalue = [2, 0]"] ;
24 -> 25 ;
26 [label="gini = 0.0\nsamples = 1\nvalue = [0, 1]"] ;
24 -> 26 ;
27 [label="x[7] <= 2.5\ngini = 0.185\nsamples = 29\nvalue = [3, 26]"] ;
23 -> 27 ;
28 [label="gini = 0.0\nsamples = 17\nvalue = [0, 17]"] ;
27 -> 28 ;
29 [label="x[4] <= 2781.5\ngini = 0.375\nsamples = 12\nvalue = [3, 9]"] ;
27 -> 29 ;
30 [label="x[11] <= 1.0\ngini = 0.5\nsamples = 6\nvalue = [3, 3]"] ;
29 -> 30 ;
31 [label="gini = 0.0\nsamples = 2\nvalue = [0, 2]"] ;
30 -> 31 ;
32 [label="x[8] <= 2.5\ngini = 0.375\nsamples = 4\nvalue = [3, 1]"] ;
30 -> 32 ;
33 [label="gini = 0.0\nsamples = 3\nvalue = [3, 0]"] ;
32 -> 33 ;
34 [label="gini = 0.0\nsamples = 1\nvalue = [0, 1]"] ;
32 -> 34 ;
35 [label="gini = 0.0\nsamples = 6\nvalue = [0, 6]"] ;
29 -> 35 ;
36 [label="x[4] <= 2981.0\ngini = 0.5\nsamples = 12\nvalue = [6, 6]"] ;
16 -> 36 ;
37 [label="gini = 0.0\nsamples = 3\nvalue = [0, 3]"] ;
36 -> 37 ;
38 [label="x[1] <= 48.0\ngini = 0.444\nsamples = 9\nvalue = [6, 3]"] ;
36 -> 38 ;
39 [label="x[18] <= 0.5\ngini = 0.245\nsamples = 7\nvalue = [6, 1]"] ;
38 -> 39 ;
40 [label="x[7] <= 2.5\ngini = 0.5\nsamples = 2\nvalue = [1, 1]"] ;
39 -> 40 ;
41 [label="gini = 0.0\nsamples = 1\nvalue = [1, 0]"] ;
40 -> 41 ;
42 [label="gini = 0.0\nsamples = 1\nvalue = [0, 1]"] ;
40 -> 42 ;
43 [label="gini = 0.0\nsamples = 5\nvalue = [5, 0]"] ;
39 -> 43 ;
44 [label="gini = 0.0\nsamples = 2\nvalue = [0, 2]"] ;
38 -> 44 ;
45 [label="x[4] <= 3607.5\ngini = 0.115\nsamples = 179\nvalue = [11, 168]"] ;
15 -> 45 ;
46 [label="x[14] <= 0.5\ngini = 0.061\nsamples = 127\nvalue = [4, 123]"] ;
45 -> 46 ;
47 [label="x[13] <= 1.5\ngini = 0.346\nsamples = 9\nvalue = [2, 7]"] ;
46 -> 47 ;
48 [label="x[5] <= 3.5\ngini = 0.219\nsamples = 8\nvalue = [1, 7]"] ;
47 -> 48 ;
49 [label="gini = 0.0\nsamples = 7\nvalue = [0, 7]"] ;
48 -> 49 ;
50 [label="gini = 0.0\nsamples = 1\nvalue = [1, 0]"] ;
48 -> 50 ;
51 [label="gini = 0.0\nsamples = 1\nvalue = [1, 0]"] ;
47 -> 51 ;
52 [label="x[9] <= 0.5\ngini = 0.033\nsamples = 118\nvalue = [2, 116]"] ;
46 -> 52 ;
53 [label="x[10] <= 1.5\ngini = 0.375\nsamples = 4\nvalue = [1, 3]"] ;
52 -> 53 ;
54 [label="gini = 0.0\nsamples = 1\nvalue = [1, 0]"] ;
53 -> 54 ;
55 [label="gini = 0.0\nsamples = 3\nvalue = [0, 3]"] ;
53 -> 55 ;
56 [label="x[17] <= 1.5\ngini = 0.017\nsamples = 114\nvalue = [1, 113]"] ;
52 -> 56 ;
57 [label="gini = 0.0\nsamples = 95\nvalue = [0, 95]"] ;
56 -> 57 ;
58 [label="x[12] <= 45.5\ngini = 0.1\nsamples = 19\nvalue = [1, 18]"] ;
56 -> 58 ;
59 [label="gini = 0.0\nsamples = 17\nvalue = [0, 17]"] ;
58 -> 59 ;
60 [label="x[6] <= 2.0\ngini = 0.5\nsamples = 2\nvalue = [1, 1]"] ;
58 -> 60 ;
61 [label="gini = 0.0\nsamples = 1\nvalue = [0, 1]"] ;
60 -> 61 ;
62 [label="gini = 0.0\nsamples = 1\nvalue = [1, 0]"] ;
60 -> 62 ;
63 [label="x[1] <= 25.5\ngini = 0.233\nsamples = 52\nvalue = [7, 45]"] ;
45 -> 63 ;
64 [label="x[5] <= 1.5\ngini = 0.384\nsamples = 27\nvalue = [7, 20]"] ;
63 -> 64 ;
65 [label="x[12] <= 40.5\ngini = 0.5\nsamples = 10\nvalue = [5, 5]"] ;
64 -> 65 ;
66 [label="gini = 0.0\nsamples = 3\nvalue = [3, 0]"] ;
65 -> 66 ;
67 [label="x[11] <= 2.5\ngini = 0.408\nsamples = 7\nvalue = [2, 5]"] ;
65 -> 67 ;
68 [label="gini = 0.0\nsamples = 4\nvalue = [0, 4]"] ;
67 -> 68 ;
69 [label="x[16] <= 1.5\ngini = 0.444\nsamples = 3\nvalue = [2, 1]"] ;
67 -> 69 ;
70 [label="gini = 0.0\nsamples = 1\nvalue = [0, 1]"] ;
69 -> 70 ;
71 [label="gini = 0.0\nsamples = 2\nvalue = [2, 0]"] ;
69 -> 71 ;
72 [label="x[17] <= 1.5\ngini = 0.208\nsamples = 17\nvalue = [2, 15]"] ;
64 -> 72 ;
73 [label="x[5] <= 3.5\ngini = 0.117\nsamples = 16\nvalue = [1, 15]"] ;
72 -> 73 ;
74 [label="gini = 0.0\nsamples = 14\nvalue = [0, 14]"] ;
73 -> 74 ;
75 [label="x[4] <= 4184.0\ngini = 0.5\nsamples = 2\nvalue = [1, 1]"] ;
73 -> 75 ;
76 [label="gini = 0.0\nsamples = 1\nvalue = [0, 1]"] ;
75 -> 76 ;
77 [label="gini = 0.0\nsamples = 1\nvalue = [1, 0]"] ;
75 -> 77 ;
78 [label="gini = 0.0\nsamples = 1\nvalue = [1, 0]"] ;
72 -> 78 ;
79 [label="gini = 0.0\nsamples = 25\nvalue = [0, 25]"] ;
63 -> 79 ;
80 [label="x[1] <= 43.5\ngini = 0.487\nsamples = 428\nvalue = [180, 248]"] ;
0 -> 80 [labeldistance=2.5, labelangle=-45, headlabel="False"] ;
81 [label="x[1] <= 8.5\ngini = 0.476\nsamples = 396\nvalue = [155, 241]"] ;
80 -> 81 ;
82 [label="x[2] <= 0.5\ngini = 0.188\nsamples = 38\nvalue = [4, 34]"] ;
81 -> 82 ;
83 [label="gini = 0.0\nsamples = 2\nvalue = [2, 0]"] ;
82 -> 83 ;
84 [label="x[4] <= 9286.0\ngini = 0.105\nsamples = 36\nvalue = [2, 34]"] ;
82 -> 84 ;
85 [label="x[4] <= 3015.5\ngini = 0.056\nsamples = 35\nvalue = [1, 34]"] ;
84 -> 85 ;
86 [label="gini = 0.0\nsamples = 32\nvalue = [0, 32]"] ;
85 -> 86 ;
87 [label="x[18] <= 0.5\ngini = 0.444\nsamples = 3\nvalue = [1, 2]"] ;
85 -> 87 ;
88 [label="gini = 0.0\nsamples = 2\nvalue = [0, 2]"] ;
87 -> 88 ;
89 [label="gini = 0.0\nsamples = 1\nvalue = [1, 0]"] ;
87 -> 89 ;
90 [label="gini = 0.0\nsamples = 1\nvalue = [1, 0]"] ;
84 -> 90 ;
91 [label="x[4] <= 1381.5\ngini = 0.488\nsamples = 358\nvalue = [151, 207]"] ;
81 -> 91 ;
92 [label="x[11] <= 2.5\ngini = 0.496\nsamples = 101\nvalue = [55, 46]"] ;
91 -> 92 ;
93 [label="x[1] <= 22.5\ngini = 0.489\nsamples = 73\nvalue = [31, 42]"] ;
92 -> 93 ;
94 [label="x[4] <= 773.5\ngini = 0.461\nsamples = 61\nvalue = [22, 39]"] ;
93 -> 94 ;
95 [label="x[4] <= 590.0\ngini = 0.488\nsamples = 19\nvalue = [11, 8]"] ;
94 -> 95 ;
96 [label="gini = 0.0\nsamples = 4\nvalue = [0, 4]"] ;
95 -> 96 ;
97 [label="x[0] <= 1.5\ngini = 0.391\nsamples = 15\nvalue = [11, 4]"] ;
95 -> 97 ;
98 [label="x[4] <= 760.0\ngini = 0.444\nsamples = 3\nvalue = [1, 2]"] ;
97 -> 98 ;
99 [label="gini = 0.0\nsamples = 2\nvalue = [0, 2]"] ;
98 -> 99 ;
100 [label="gini = 0.0\nsamples = 1\nvalue = [1, 0]"] ;
98 -> 100 ;
101 [label="x[14] <= 1.5\ngini = 0.278\nsamples = 12\nvalue = [10, 2]"] ;
97 -> 101 ;
102 [label="x[12] <= 37.5\ngini = 0.165\nsamples = 11\nvalue = [10, 1]"] ;
101 -> 102 ;
103 [label="gini = 0.0\nsamples = 9\nvalue = [9, 0]"] ;
102 -> 103 ;
104 [label="x[13] <= 1.5\ngini = 0.5\nsamples = 2\nvalue = [1, 1]"] ;
102 -> 104 ;
105 [label="gini = 0.0\nsamples = 1\nvalue = [0, 1]"] ;
104 -> 105 ;
106 [label="gini = 0.0\nsamples = 1\nvalue = [1, 0]"] ;
104 -> 106 ;
107 [label="gini = 0.0\nsamples = 1\nvalue = [0, 1]"] ;
101 -> 107 ;
108 [label="x[12] <= 27.5\ngini = 0.387\nsamples = 42\nvalue = [11, 31]"] ;
94 -> 108 ;
109 [label="x[12] <= 21.5\ngini = 0.105\nsamples = 18\nvalue = [1, 17]"] ;
108 -> 109 ;
110 [label="x[4] <= 942.5\ngini = 0.444\nsamples = 3\nvalue = [1, 2]"] ;
109 -> 110 ;
111 [label="gini = 0.0\nsamples = 1\nvalue = [1, 0]"] ;
110 -> 111 ;
112 [label="gini = 0.0\nsamples = 2\nvalue = [0, 2]"] ;
110 -> 112 ;
113 [label="gini = 0.0\nsamples = 15\nvalue = [0, 15]"] ;
109 -> 113 ;
114 [label="x[12] <= 48.5\ngini = 0.486\nsamples = 24\nvalue = [10, 14]"] ;
108 -> 114 ;
115 [label="x[4] <= 1287.5\ngini = 0.444\nsamples = 12\nvalue = [8, 4]"] ;
114 -> 115 ;
116 [label="x[19] <= 0.5\ngini = 0.32\nsamples = 10\nvalue = [8, 2]"] ;
115 -> 116 ;
117 [label="gini = 0.0\nsamples = 1\nvalue = [0, 1]"] ;
116 -> 117 ;
118 [label="x[4] <= 1000.0\ngini = 0.198\nsamples = 9\nvalue = [8, 1]"] ;
116 -> 118 ;
119 [label="x[5] <= 2.5\ngini = 0.5\nsamples = 2\nvalue = [1, 1]"] ;
118 -> 119 ;
120 [label="gini = 0.0\nsamples = 1\nvalue = [1, 0]"] ;
119 -> 120 ;
121 [label="gini = 0.0\nsamples = 1\nvalue = [0, 1]"] ;
119 -> 121 ;
122 [label="gini = 0.0\nsamples = 7\nvalue = [7, 0]"] ;
118 -> 122 ;
123 [label="gini = 0.0\nsamples = 2\nvalue = [0, 2]"] ;
115 -> 123 ;
124 [label="x[17] <= 1.5\ngini = 0.278\nsamples = 12\nvalue = [2, 10]"] ;
114 -> 124 ;
125 [label="x[4] <= 916.5\ngini = 0.165\nsamples = 11\nvalue = [1, 10]"] ;
124 -> 125 ;
126 [label="x[12] <= 58.0\ngini = 0.444\nsamples = 3\nvalue = [1, 2]"] ;
125 -> 126 ;
127 [label="gini = 0.0\nsamples = 1\nvalue = [1, 0]"] ;
126 -> 127 ;
128 [label="gini = 0.0\nsamples = 2\nvalue = [0, 2]"] ;
126 -> 128 ;
129 [label="gini = 0.0\nsamples = 8\nvalue = [0, 8]"] ;
125 -> 129 ;
130 [label="gini = 0.0\nsamples = 1\nvalue = [1, 0]"] ;
124 -> 130 ;
131 [label="x[18] <= 0.5\ngini = 0.375\nsamples = 12\nvalue = [9, 3]"] ;
93 -> 131 ;
132 [label="gini = 0.0\nsamples = 9\nvalue = [9, 0]"] ;
131 -> 132 ;
133 [label="gini = 0.0\nsamples = 3\nvalue = [0, 3]"] ;
131 -> 133 ;
134 [label="x[10] <= 1.5\ngini = 0.245\nsamples = 28\nvalue = [24, 4]"] ;
92 -> 134 ;
135 [label="x[7] <= 2.5\ngini = 0.444\nsamples = 3\nvalue = [1, 2]"] ;
134 -> 135 ;
136 [label="gini = 0.0\nsamples = 1\nvalue = [1, 0]"] ;
135 -> 136 ;
137 [label="gini = 0.0\nsamples = 2\nvalue = [0, 2]"] ;
135 -> 137 ;
138 [label="x[12] <= 64.0\ngini = 0.147\nsamples = 25\nvalue = [23, 2]"] ;
134 -> 138 ;
139 [label="x[1] <= 10.5\ngini = 0.08\nsamples = 24\nvalue = [23, 1]"] ;
138 -> 139 ;
140 [label="x[0] <= 1.5\ngini = 0.444\nsamples = 3\nvalue = [2, 1]"] ;
139 -> 140 ;
141 [label="gini = 0.0\nsamples = 1\nvalue = [0, 1]"] ;
140 -> 141 ;
142 [label="gini = 0.0\nsamples = 2\nvalue = [2, 0]"] ;
140 -> 142 ;
143 [label="gini = 0.0\nsamples = 21\nvalue = [21, 0]"] ;
139 -> 143 ;
144 [label="gini = 0.0\nsamples = 1\nvalue = [0, 1]"] ;
138 -> 144 ;
145 [label="x[0] <= 2.5\ngini = 0.468\nsamples = 257\nvalue = [96, 161]"] ;
91 -> 145 ;
146 [label="x[4] <= 8150.5\ngini = 0.481\nsamples = 233\nvalue = [94, 139]"] ;
145 -> 146 ;
147 [label="x[2] <= 0.5\ngini = 0.471\nsamples = 216\nvalue = [82, 134]"] ;
146 -> 147 ;
148 [label="x[12] <= 23.0\ngini = 0.408\nsamples = 14\nvalue = [10, 4]"] ;
147 -> 148 ;
149 [label="gini = 0.0\nsamples = 3\nvalue = [0, 3]"] ;
148 -> 149 ;
150 [label="x[1] <= 30.0\ngini = 0.165\nsamples = 11\nvalue = [10, 1]"] ;
148 -> 150 ;
151 [label="gini = 0.0\nsamples = 10\nvalue = [10, 0]"] ;
150 -> 151 ;
152 [label="gini = 0.0\nsamples = 1\nvalue = [0, 1]"] ;
150 -> 152 ;
153 [label="x[1] <= 26.5\ngini = 0.459\nsamples = 202\nvalue = [72, 130]"] ;
147 -> 153 ;
154 [label="x[14] <= 1.5\ngini = 0.426\nsamples = 153\nvalue = [47, 106]"] ;
153 -> 154 ;
155 [label="x[5] <= 2.5\ngini = 0.371\nsamples = 114\nvalue = [28, 86]"] ;
154 -> 155 ;
156 [label="x[6] <= 3.5\ngini = 0.117\nsamples = 32\nvalue = [2, 30]"] ;
155 -> 156 ;
157 [label="x[3] <= 3.5\ngini = 0.062\nsamples = 31\nvalue = [1, 30]"] ;
156 -> 157 ;
158 [label="gini = 0.0\nsamples = 29\nvalue = [0, 29]"] ;
157 -> 158 ;
159 [label="x[6] <= 2.5\ngini = 0.5\nsamples = 2\nvalue = [1, 1]"] ;
157 -> 159 ;
160 [label="gini = 0.0\nsamples = 1\nvalue = [1, 0]"] ;
159 -> 160 ;
161 [label="gini = 0.0\nsamples = 1\nvalue = [0, 1]"] ;
159 -> 161 ;
162 [label="gini = 0.0\nsamples = 1\nvalue = [1, 0]"] ;
156 -> 162 ;
163 [label="x[4] <= 5306.5\ngini = 0.433\nsamples = 82\nvalue = [26, 56]"] ;
155 -> 163 ;
164 [label="x[4] <= 3915.5\ngini = 0.459\nsamples = 70\nvalue = [25, 45]"] ;
163 -> 164 ;
165 [label="x[10] <= 3.5\ngini = 0.414\nsamples = 58\nvalue = [17, 41]"] ;
164 -> 165 ;
166 [label="x[6] <= 1.5\ngini = 0.463\nsamples = 44\nvalue = [16, 28]"] ;
165 -> 166 ;
167 [label="x[15] <= 1.5\ngini = 0.365\nsamples = 25\nvalue = [6, 19]"] ;
166 -> 167 ;
168 [label="x[1] <= 15.0\ngini = 0.255\nsamples = 20\nvalue = [3, 17]"] ;
167 -> 168 ;
169 [label="x[12] <= 34.0\ngini = 0.133\nsamples = 14\nvalue = [1, 13]"] ;
168 -> 169 ;
170 [label="gini = 0.0\nsamples = 11\nvalue = [0, 11]"] ;
169 -> 170 ;
171 [label="x[7] <= 3.0\ngini = 0.444\nsamples = 3\nvalue = [1, 2]"] ;
169 -> 171 ;
172 [label="gini = 0.0\nsamples = 2\nvalue = [0, 2]"] ;
171 -> 172 ;
173 [label="gini = 0.0\nsamples = 1\nvalue = [1, 0]"] ;
171 -> 173 ;
174 [label="x[12] <= 24.5\ngini = 0.444\nsamples = 6\nvalue = [2, 4]"] ;
168 -> 174 ;
175 [label="gini = 0.0\nsamples = 2\nvalue = [2, 0]"] ;
174 -> 175 ;
176 [label="gini = 0.0\nsamples = 4\nvalue = [0, 4]"] ;
174 -> 176 ;
177 [label="x[8] <= 2.5\ngini = 0.48\nsamples = 5\nvalue = [3, 2]"] ;
167 -> 177 ;
178 [label="gini = 0.0\nsamples = 3\nvalue = [3, 0]"] ;
177 -> 178 ;
179 [label="gini = 0.0\nsamples = 2\nvalue = [0, 2]"] ;
177 -> 179 ;
180 [label="x[1] <= 10.5\ngini = 0.499\nsamples = 19\nvalue = [10, 9]"] ;
166 -> 180 ;
181 [label="gini = 0.0\nsamples = 3\nvalue = [3, 0]"] ;
180 -> 181 ;
182 [label="x[4] <= 1785.0\ngini = 0.492\nsamples = 16\nvalue = [7, 9]"] ;
180 -> 182 ;
183 [label="gini = 0.0\nsamples = 4\nvalue = [0, 4]"] ;
182 -> 183 ;
184 [label="x[4] <= 2346.0\ngini = 0.486\nsamples = 12\nvalue = [7, 5]"] ;
182 -> 184 ;
185 [label="x[11] <= 2.5\ngini = 0.245\nsamples = 7\nvalue = [6, 1]"] ;
184 -> 185 ;
186 [label="gini = 0.0\nsamples = 5\nvalue = [5, 0]"] ;
185 -> 186 ;
187 [label="x[12] <= 32.0\ngini = 0.5\nsamples = 2\nvalue = [1, 1]"] ;
185 -> 187 ;
188 [label="gini = 0.0\nsamples = 1\nvalue = [1, 0]"] ;
187 -> 188 ;
189 [label="gini = 0.0\nsamples = 1\nvalue = [0, 1]"] ;
187 -> 189 ;
190 [label="x[11] <= 0.5\ngini = 0.32\nsamples = 5\nvalue = [1, 4]"] ;
184 -> 190 ;
191 [label="gini = 0.0\nsamples = 1\nvalue = [1, 0]"] ;
190 -> 191 ;
192 [label="gini = 0.0\nsamples = 4\nvalue = [0, 4]"] ;
190 -> 192 ;
193 [label="x[1] <= 22.5\ngini = 0.133\nsamples = 14\nvalue = [1, 13]"] ;
165 -> 193 ;
194 [label="gini = 0.0\nsamples = 10\nvalue = [0, 10]"] ;
193 -> 194 ;
195 [label="x[3] <= 2.0\ngini = 0.375\nsamples = 4\nvalue = [1, 3]"] ;
193 -> 195 ;
196 [label="x[12] <= 47.0\ngini = 0.5\nsamples = 2\nvalue = [1, 1]"] ;
195 -> 196 ;
197 [label="gini = 0.0\nsamples = 1\nvalue = [1, 0]"] ;
196 -> 197 ;
198 [label="gini = 0.0\nsamples = 1\nvalue = [0, 1]"] ;
196 -> 198 ;
199 [label="gini = 0.0\nsamples = 2\nvalue = [0, 2]"] ;
195 -> 199 ;
200 [label="x[12] <= 24.5\ngini = 0.444\nsamples = 12\nvalue = [8, 4]"] ;
164 -> 200 ;
201 [label="gini = 0.0\nsamples = 2\nvalue = [0, 2]"] ;
200 -> 201 ;
202 [label="x[10] <= 1.5\ngini = 0.32\nsamples = 10\nvalue = [8, 2]"] ;
200 -> 202 ;
203 [label="gini = 0.0\nsamples = 1\nvalue = [0, 1]"] ;
202 -> 203 ;
204 [label="x[7] <= 3.5\ngini = 0.198\nsamples = 9\nvalue = [8, 1]"] ;
202 -> 204 ;
205 [label="gini = 0.0\nsamples = 7\nvalue = [7, 0]"] ;
204 -> 205 ;
206 [label="x[1] <= 21.0\ngini = 0.5\nsamples = 2\nvalue = [1, 1]"] ;
204 -> 206 ;
207 [label="gini = 0.0\nsamples = 1\nvalue = [1, 0]"] ;
206 -> 207 ;
208 [label="gini = 0.0\nsamples = 1\nvalue = [0, 1]"] ;
206 -> 208 ;
209 [label="x[4] <= 7619.5\ngini = 0.153\nsamples = 12\nvalue = [1, 11]"] ;
163 -> 209 ;
210 [label="gini = 0.0\nsamples = 10\nvalue = [0, 10]"] ;
209 -> 210 ;
211 [label="x[6] <= 2.5\ngini = 0.5\nsamples = 2\nvalue = [1, 1]"] ;
209 -> 211 ;
212 [label="gini = 0.0\nsamples = 1\nvalue = [0, 1]"] ;
211 -> 212 ;
213 [label="gini = 0.0\nsamples = 1\nvalue = [1, 0]"] ;
211 -> 213 ;
214 [label="x[2] <= 3.5\ngini = 0.5\nsamples = 39\nvalue = [19, 20]"] ;
154 -> 214 ;
215 [label="x[7] <= 2.5\ngini = 0.484\nsamples = 34\nvalue = [14, 20]"] ;
214 -> 215 ;
216 [label="x[4] <= 2059.5\ngini = 0.337\nsamples = 14\nvalue = [3, 11]"] ;
215 -> 216 ;
217 [label="gini = 0.0\nsamples = 2\nvalue = [2, 0]"] ;
216 -> 217 ;
218 [label="x[11] <= 0.5\ngini = 0.153\nsamples = 12\nvalue = [1, 11]"] ;
216 -> 218 ;
219 [label="gini = 0.0\nsamples = 1\nvalue = [1, 0]"] ;
218 -> 219 ;
220 [label="gini = 0.0\nsamples = 11\nvalue = [0, 11]"] ;
218 -> 220 ;
221 [label="x[4] <= 1870.0\ngini = 0.495\nsamples = 20\nvalue = [11, 9]"] ;
215 -> 221 ;
222 [label="gini = 0.0\nsamples = 4\nvalue = [0, 4]"] ;
221 -> 222 ;
223 [label="x[4] <= 5551.5\ngini = 0.43\nsamples = 16\nvalue = [11, 5]"] ;
221 -> 223 ;
224 [label="x[12] <= 62.5\ngini = 0.337\nsamples = 14\nvalue = [11, 3]"] ;
223 -> 224 ;
225 [label="x[4] <= 2662.0\ngini = 0.26\nsamples = 13\nvalue = [11, 2]"] ;
224 -> 225 ;
226 [label="x[18] <= 0.5\ngini = 0.444\nsamples = 6\nvalue = [4, 2]"] ;
225 -> 226 ;
227 [label="gini = 0.0\nsamples = 4\nvalue = [4, 0]"] ;
226 -> 227 ;
228 [label="gini = 0.0\nsamples = 2\nvalue = [0, 2]"] ;
226 -> 228 ;
229 [label="gini = 0.0\nsamples = 7\nvalue = [7, 0]"] ;
225 -> 229 ;
230 [label="gini = 0.0\nsamples = 1\nvalue = [0, 1]"] ;
224 -> 230 ;
231 [label="gini = 0.0\nsamples = 2\nvalue = [0, 2]"] ;
223 -> 231 ;
232 [label="gini = 0.0\nsamples = 5\nvalue = [5, 0]"] ;
214 -> 232 ;
233 [label="x[7] <= 3.5\ngini = 0.5\nsamples = 49\nvalue = [25, 24]"] ;
153 -> 233 ;
234 [label="x[12] <= 26.5\ngini = 0.423\nsamples = 23\nvalue = [7, 16]"] ;
233 -> 234 ;
235 [label="x[5] <= 1.5\ngini = 0.469\nsamples = 8\nvalue = [5, 3]"] ;
234 -> 235 ;
236 [label="x[6] <= 0.5\ngini = 0.375\nsamples = 4\nvalue = [1, 3]"] ;
235 -> 236 ;
237 [label="gini = 0.0\nsamples = 1\nvalue = [1, 0]"] ;
236 -> 237 ;
238 [label="gini = 0.0\nsamples = 3\nvalue = [0, 3]"] ;
236 -> 238 ;
239 [label="gini = 0.0\nsamples = 4\nvalue = [4, 0]"] ;
235 -> 239 ;
240 [label="x[6] <= 2.0\ngini = 0.231\nsamples = 15\nvalue = [2, 13]"] ;
234 -> 240 ;
241 [label="gini = 0.0\nsamples = 12\nvalue = [0, 12]"] ;
240 -> 241 ;
242 [label="x[0] <= 1.5\ngini = 0.444\nsamples = 3\nvalue = [2, 1]"] ;
240 -> 242 ;
243 [label="gini = 0.0\nsamples = 1\nvalue = [0, 1]"] ;
242 -> 243 ;
244 [label="gini = 0.0\nsamples = 2\nvalue = [2, 0]"] ;
242 -> 244 ;
245 [label="x[4] <= 3713.0\ngini = 0.426\nsamples = 26\nvalue = [18, 8]"] ;
233 -> 245 ;
246 [label="x[6] <= 2.5\ngini = 0.5\nsamples = 16\nvalue = [8, 8]"] ;
245 -> 246 ;
247 [label="x[10] <= 1.5\ngini = 0.375\nsamples = 8\nvalue = [6, 2]"] ;
246 -> 247 ;
248 [label="gini = 0.0\nsamples = 2\nvalue = [0, 2]"] ;
247 -> 248 ;
249 [label="gini = 0.0\nsamples = 6\nvalue = [6, 0]"] ;
247 -> 249 ;
250 [label="x[2] <= 2.5\ngini = 0.375\nsamples = 8\nvalue = [2, 6]"] ;
246 -> 250 ;
251 [label="gini = 0.0\nsamples = 5\nvalue = [0, 5]"] ;
250 -> 251 ;
252 [label="x[15] <= 1.5\ngini = 0.444\nsamples = 3\nvalue = [2, 1]"] ;
250 -> 252 ;
253 [label="gini = 0.0\nsamples = 2\nvalue = [2, 0]"] ;
252 -> 253 ;
254 [label="gini = 0.0\nsamples = 1\nvalue = [0, 1]"] ;
252 -> 254 ;
255 [label="gini = 0.0\nsamples = 10\nvalue = [10, 0]"] ;
245 -> 255 ;
256 [label="x[2] <= 2.5\ngini = 0.415\nsamples = 17\nvalue = [12, 5]"] ;
146 -> 256 ;
257 [label="x[5] <= 2.0\ngini = 0.469\nsamples = 8\nvalue = [3, 5]"] ;
256 -> 257 ;
258 [label="gini = 0.0\nsamples = 3\nvalue = [0, 3]"] ;
257 -> 258 ;
259 [label="x[14] <= 0.5\ngini = 0.48\nsamples = 5\nvalue = [3, 2]"] ;
257 -> 259 ;
260 [label="gini = 0.0\nsamples = 2\nvalue = [0, 2]"] ;
259 -> 260 ;
261 [label="gini = 0.0\nsamples = 3\nvalue = [3, 0]"] ;
259 -> 261 ;
262 [label="gini = 0.0\nsamples = 9\nvalue = [9, 0]"] ;
256 -> 262 ;
263 [label="x[17] <= 1.5\ngini = 0.153\nsamples = 24\nvalue = [2, 22]"] ;
145 -> 263 ;
264 [label="x[12] <= 61.0\ngini = 0.087\nsamples = 22\nvalue = [1, 21]"] ;
263 -> 264 ;
265 [label="gini = 0.0\nsamples = 20\nvalue = [0, 20]"] ;
264 -> 265 ;
266 [label="x[16] <= 0.5\ngini = 0.5\nsamples = 2\nvalue = [1, 1]"] ;
264 -> 266 ;
267 [label="gini = 0.0\nsamples = 1\nvalue = [1, 0]"] ;
266 -> 267 ;
268 [label="gini = 0.0\nsamples = 1\nvalue = [0, 1]"] ;
266 -> 268 ;
269 [label="x[11] <= 1.0\ngini = 0.5\nsamples = 2\nvalue = [1, 1]"] ;
263 -> 269 ;
270 [label="gini = 0.0\nsamples = 1\nvalue = [0, 1]"] ;
269 -> 270 ;
271 [label="gini = 0.0\nsamples = 1\nvalue = [1, 0]"] ;
269 -> 271 ;
272 [label="x[5] <= 0.5\ngini = 0.342\nsamples = 32\nvalue = [25, 7]"] ;
80 -> 272 ;
273 [label="gini = 0.0\nsamples = 3\nvalue = [0, 3]"] ;
272 -> 273 ;
274 [label="x[10] <= 1.5\ngini = 0.238\nsamples = 29\nvalue = [25, 4]"] ;
272 -> 274 ;
275 [label="x[4] <= 7237.5\ngini = 0.444\nsamples = 3\nvalue = [1, 2]"] ;
274 -> 275 ;
276 [label="gini = 0.0\nsamples = 1\nvalue = [1, 0]"] ;
275 -> 276 ;
277 [label="gini = 0.0\nsamples = 2\nvalue = [0, 2]"] ;
275 -> 277 ;
278 [label="x[6] <= 3.5\ngini = 0.142\nsamples = 26\nvalue = [24, 2]"] ;
274 -> 278 ;
279 [label="x[17] <= 1.5\ngini = 0.077\nsamples = 25\nvalue = [24, 1]"] ;
278 -> 279 ;
280 [label="gini = 0.0\nsamples = 22\nvalue = [22, 0]"] ;
279 -> 280 ;
281 [label="x[3] <= 3.5\ngini = 0.444\nsamples = 3\nvalue = [2, 1]"] ;
279 -> 281 ;
282 [label="gini = 0.0\nsamples = 1\nvalue = [0, 1]"] ;
281 -> 282 ;
283 [label="gini = 0.0\nsamples = 2\nvalue = [2, 0]"] ;
281 -> 283 ;
284 [label="gini = 0.0\nsamples = 1\nvalue = [0, 1]"] ;
278 -> 284 ;
}